const int R1 = 1020, C1 = 32;
const float weight1[C1 * R1] = {
-8.091967552900314331e-03,-7.425527274608612061e-02,-1.181067805737257004e-02,-2.589994668960571289e-02,5.365183204412460327e-02,1.194351166486740112e-02,4.374058544635772705e-02,2.361792512238025665e-02,-7.426804304122924805e-02,2.593258768320083618e-02,-4.098514094948768616e-03,-7.987065613269805908e-02,-4.784640669822692871e-02,-4.874178022146224976e-02,-2.978695929050445557e-02,2.099538221955299377e-03,-5.579213052988052368e-02,2.159584127366542816e-02,-3.716987371444702148e-02,6.901794672012329102e-02,-2.985337749123573303e-02,-7.166574150323867798e-02,4.824974387884140015e-02,-7.627117633819580078e-02,1.492478884756565094e-03,3.727292269468307495e-02,5.635812878608703613e-02,-3.784538060426712036e-02,5.655335634946823120e-02,6.280443817377090454e-02,-4.673261567950248718e-02,1.923692412674427032e-02,-2.918812911957502365e-03,1.180591899901628494e-02,-9.117717854678630829e-03,6.525481492280960083e-02,-1.481253281235694885e-02,6.715595722198486328e-02,1.267616171389818192e-03,-2.554723620414733887e-02,-1.191025716252624989e-03,6.270367652177810669e-02,6.528230756521224976e-02,-2.651885151863098145e-03,-1.207488356158137321e-03,-3.085296787321567535e-02,1.808879151940345764e-02,-1.210017502307891846e-02,1.738914847373962402e-02,-6.344272196292877197e-02,-4.297593608498573303e-03,-5.438434332609176636e-02,1.420512795448303223e-02,-4.970432259142398834e-03,-5.292510613799095154e-02,-7.080342154949903488e-03,-1.428175903856754303e-02,3.202749788761138916e-02,-3.292850917205214500e-03,2.660887548699975014e-03,4.714953899383544922e-02,-4.508391767740249634e-02,-4.702828824520111084e-02,8.969966322183609009e-03,-6.125069037079811096e-02,-6.346487253904342651e-02,2.425167709589004517e-02,-1.733358949422836304e-02,-6.929476559162139893e-02,-5.424086004495620728e-02,-6.910766661167144775e-02,-1.167961955070495605e-02,2.062619477510452271e-02,-7.637463510036468506e-02,-2.667974494397640228e-02,-4.097174853086471558e-02,4.609072953462600708e-02,-7.930655777454376221e-02,1.553018949925899506e-02,4.981681704521179199e-02,-2.469557803124189377e-03,-7.581418752670288086e-02,-6.973418593406677246e-02,7.293804083019495010e-03,-3.360881283879280090e-02,4.539991915225982666e-02,6.431681662797927856e-02,1.607250235974788666e-02,5.640227347612380981e-02,2.726557292044162750e-02,6.946045905351638794e-02,-5.606519803404808044e-02,4.337536543607711792e-02,4.782459884881973267e-02,1.814568601548671722e-02,2.555466257035732269e-02,-4.346371814608573914e-02,-7.238077372312545776e-02,-2.090000547468662262e-03,-6.553548574447631836e-02,6.209389120340347290e-02,-6.625502556562423706e-02,-1.228983793407678604e-02,-3.839715570211410522e-02,4.426754266023635864e-02,3.994260728359222412e-02,-4.911162424832582474e-03,-7.620779424905776978e-02,6.275518983602523804e-02,-7.076687179505825043e-04,4.765651246998459101e-04,-4.885268863290548325e-03,-8.938346058130264282e-03,-7.843703031539916992e-02,-3.835288807749748230e-02,2.132678963243961334e-02,-9.981829673051834106e-03,2.341645210981369019e-02,1.843352057039737701e-02,3.199290111660957336e-02,-5.567502975463867188e-02,-5.585789680480957031e-02,5.410473048686981201e-02,6.411503255367279053e-02,2.442270703613758087e-02,-4.708034172654151917e-02,2.991723082959651947e-02,3.204697370529174805e-02,2.109549939632415771e-02,-6.181587278842926025e-02,1.787079311907291412e-02,-6.193645671010017395e-02,6.349892914295196533e-02,9.191287681460380554e-03,-9.447371587157249451e-03,-6.150572746992111206e-02,-8.178101852536201477e-03,3.623137623071670532e-02,3.430519485846161842e-03,3.087234310805797577e-02,3.275247663259506226e-02,-5.138833448290824890e-02,5.954079702496528625e-02,-2.476256340742111206e-03,2.051255665719509125e-02,-6.658506393432617188e-02,5.460813641548156738e-02,-6.516914069652557373e-02,4.637601599097251892e-02,-4.033629596233367920e-02,-1.412261556833982468e-02,1.584132947027683258e-02,-6.074342411011457443e-03,1.087250001728534698e-02,-2.893851324915885925e-02,6.547401100397109985e-02,5.414420738816261292e-02,1.062470953911542892e-02,-7.095748186111450195e-02,3.221837058663368225e-02,2.324325405061244965e-02,-4.576100781559944153e-02,4.389221966266632080e-02,-5.769511684775352478e-02,3.327484801411628723e-02,1.425532624125480652e-02,-4.055109992623329163e-02,-6.313686817884445190e-02,-2.872529812157154083e-02,-5.039753392338752747e-02,5.442877858877182007e-02,5.707006528973579407e-02,4.716246575117111206e-02,3.171404451131820679e-02,-3.103323094546794891e-02,-5.513316765427589417e-02,6.385685503482818604e-02,5.296357558108866215e-04,-1.542069017887115479e-02,3.444329649209976196e-02,-2.276783995330333710e-02,-2.506955713033676147e-02,4.380312561988830566e-02,-4.448809704626910388e-05,-7.151987403631210327e-02,5.709115415811538696e-02,-6.143798679113388062e-02,-3.551995754241943359e-02,-4.583393689244985580e-03,-5.019885301589965820e-02,-1.498553622514009476e-02,-1.332194171845912933e-02,-3.444162011146545410e-02,-6.226561963558197021e-02,-1.371563412249088287e-02,5.970127880573272705e-02,1.097140554338693619e-02,-4.627260193228721619e-02,-7.508887350559234619e-02,3.565241768956184387e-02,-5.396598577499389648e-02,-5.914992839097976685e-02,4.396292194724082947e-02,5.719221755862236023e-02,6.239025667309761047e-02,2.247876673936843872e-02,-2.776714041829109192e-02,1.765595376491546631e-02,6.571209430694580078e-02,3.072221018373966217e-02,6.016390398144721985e-02,3.430138155817985535e-02,-2.048703283071517944e-02,2.809692732989788055e-02,4.000318795442581177e-02,4.889722913503646851e-02,5.588677152991294861e-02,-1.430442649871110916e-02,-4.573631659150123596e-02,1.384512614458799362e-02,6.861088331788778305e-03,-3.301793336868286133e-02,-7.111611217260360718e-02,6.276655197143554688e-02,3.038007579743862152e-02,-3.659871965646743774e-02,-5.767756327986717224e-02,6.341849267482757568e-02,6.236992776393890381e-02,-3.066268377006053925e-02,-2.046508714556694031e-02,-7.125909626483917236e-02,1.025414373725652695e-02,6.825245916843414307e-02,2.803311869502067566e-02,-6.272386759519577026e-02,-3.217322379350662231e-02,-5.715711414813995361e-02,5.889144912362098694e-02,-7.354151457548141479e-02,1.536286901682615280e-02,1.863543502986431122e-02,6.264203786849975586e-02,-5.589812994003295898e-02,-4.198370501399040222e-02,-5.770104750990867615e-02,-4.835794493556022644e-02,1.647121645510196686e-02,6.919811666011810303e-02,1.861325092613697052e-02,5.616429075598716736e-02,6.227458268404006958e-02,2.013132674619555473e-03,4.949566349387168884e-02,5.326225236058235168e-02,-6.839156616479158401e-03,4.568032090901397169e-05,-2.067036367952823639e-02,-4.607461765408515930e-02,-8.036006987094879150e-02,-4.105902463197708130e-02,-4.558136314153671265e-02,-4.670006036758422852e-02,1.972279325127601624e-02,2.897813916206359863e-02,6.367800384759902954e-02,-3.053807280957698822e-02,2.858976600691676140e-03,-1.556027680635452271e-02,-1.631998270750045776e-02,-2.528693526983261108e-03,-8.682579733431339264e-03,-7.927934639155864716e-03,3.820344805717468262e-02,-5.444847047328948975e-02,6.744564324617385864e-02,-3.837041929364204407e-02,-6.901492923498153687e-02,6.495641171932220459e-02,-4.676621407270431519e-02,-5.992332845926284790e-02,2.826837077736854553e-02,6.543608009815216064e-02,-5.030566826462745667e-03,-2.277768962085247040e-02,4.284897074103355408e-02,5.835606530308723450e-02,-5.136538669466972351e-02,5.375441163778305054e-02,-4.870845004916191101e-02,-7.823614031076431274e-02,-2.419922128319740295e-02,2.522018365561962128e-02,-2.844992466270923615e-02,-4.893670231103897095e-02,-6.263906508684158325e-02,4.103850573301315308e-02,5.355780944228172302e-02,-7.988300919532775879e-02,7.929148152470588684e-03,-6.637720763683319092e-02,1.879319362342357635e-02,-4.985081776976585388e-02,-4.778151586651802063e-02,-4.735779017210006714e-02,-4.527433775365352631e-03,8.963843807578086853e-03,5.578029155731201172e-02,3.802127763628959656e-02,3.039253689348697662e-02,-7.699112594127655029e-02,-4.584782943129539490e-02,-1.905914768576622009e-02,-5.946578830480575562e-02,-7.942475378513336182e-02,-5.449767783284187317e-02,-7.038729265332221985e-03,3.637222805991768837e-03,2.780473418533802032e-02,-7.376404106616973877e-02,4.696605354547500610e-02,-3.976045176386833191e-03,5.965983960777521133e-03,1.531703211367130280e-02,6.280506402254104614e-02,-4.403338953852653503e-02,-7.725034654140472412e-02,-7.533334940671920776e-02,-6.095883622765541077e-02,1.420298218727111816e-02,-7.076816260814666748e-02,-2.545543201267719269e-02,-8.132874965667724609e-02,6.672371178865432739e-02,-1.287274761125445366e-03,-7.287872023880481720e-03,6.076123565435409546e-02,-9.266095235943794250e-03,-5.187292769551277161e-02,-2.084320411086082458e-02,1.654768921434879303e-02,-7.998655736446380615e-02,-3.380673751235008240e-02,-5.002087354660034180e-02,-1.456002332270145416e-02,-4.802691936492919922e-02,-1.481410581618547440e-02,-8.106986433267593384e-02,-4.006100445985794067e-02,-4.805306345224380493e-02,2.395408041775226593e-02,-4.013351351022720337e-02,3.249238058924674988e-02,-1.165196113288402557e-02,1.126691349782049656e-03,-6.909984350204467773e-02,-3.044963814318180084e-03,-2.493744157254695892e-02,-5.682389438152313232e-02,-1.043524872511625290e-02,-7.217055559158325195e-02,-1.209653075784444809e-02,-2.573492191731929779e-02,-6.333966739475727081e-03,-4.606858640909194946e-02,-7.838411629199981689e-02,5.754297971725463867e-02,-4.285521432757377625e-02,-1.603702083230018616e-02,1.658620894886553288e-03,3.830111399292945862e-02,1.861237548291683197e-02,1.961574191227555275e-03,-7.488985359668731689e-02,-3.464837372303009033e-02,1.297348062507808208e-03,-3.974120691418647766e-02,6.924585253000259399e-02,4.063411429524421692e-02,-2.549523301422595978e-02,-5.369034036993980408e-02,-6.393183767795562744e-02,3.364067897200584412e-02,-2.866465225815773010e-02,5.751188099384307861e-02,2.127915434539318085e-02,-4.035428538918495178e-02,4.593896865844726562e-02,-3.283424302935600281e-02,-5.239970609545707703e-02,-1.115508470684289932e-02,4.004443529993295670e-03,-3.234669938683509827e-02,-4.956499487161636353e-02,-6.041915714740753174e-02,-2.256047213450074196e-03,-8.216882124543190002e-03,5.135319754481315613e-02,1.222902536392211914e-02,6.384363025426864624e-02,6.011171638965606689e-02,-2.383946068584918976e-02,4.064583405852317810e-02,3.163913264870643616e-02,-5.084836110472679138e-02,-6.806997954845428467e-02,-2.884096652269363403e-02,3.874909505248069763e-02,-8.133301138877868652e-02,-3.948616236448287964e-02,4.661327227950096130e-02,2.718681469559669495e-02,2.856760472059249878e-02,-7.331144064664840698e-02,-7.034784555435180664e-02,-3.622829914093017578e-02,4.271209612488746643e-02,-7.936634123325347900e-02,-7.514888048171997070e-02,1.681699417531490326e-02,1.365798432379961014e-02,-2.160442806780338287e-02,-7.068029604852199554e-03,2.545748720876872540e-04,-6.004483252763748169e-02,-5.897690076380968094e-03,7.293657399713993073e-03,5.289455875754356384e-02,3.256782516837120056e-02,5.162338539958000183e-02,2.793658711016178131e-02,-7.080932706594467163e-02,6.802529096603393555e-02,2.936185104772448540e-03,-6.756924092769622803e-02,-1.773928292095661163e-02,-8.796320180408656597e-04,5.927997455000877380e-02,4.537585005164146423e-02,-4.995635896921157837e-02,4.030088335275650024e-02,5.795238539576530457e-02,4.615800827741622925e-02,-5.076302215456962585e-03,2.868107892572879791e-02,-6.399471312761306763e-03,-4.271745309233665466e-02,-4.269677400588989258e-02,-4.477338399738073349e-03,-3.621309623122215271e-02,-1.036803703755140305e-02,1.581889204680919647e-02,-6.099743302911520004e-03,-2.077317330986261368e-03,-6.275711953639984131e-02,-3.499093279242515564e-02,2.154747769236564636e-02,-7.185658067464828491e-02,-3.040324710309505463e-02,-2.829272113740444183e-02,6.890115141868591309e-02,-4.531070217490196228e-02,5.978405242785811424e-04,1.073825545608997345e-02,-4.856075718998908997e-02,-7.625592499971389771e-02,3.574053198099136353e-02,-4.971767589449882507e-02,2.424436435103416443e-02,-7.103640120476484299e-03,-1.483457069844007492e-02,4.878746718168258667e-02,-4.601057991385459900e-02,-2.754932455718517303e-02,1.735888980329036713e-02,2.876456826925277710e-02,-2.798502892255783081e-02,-7.533908635377883911e-02,-7.357180118560791016e-02,6.831506639719009399e-02,-3.329760953783988953e-02,3.579827491194009781e-03,-3.666377440094947815e-02,-1.099434867501258850e-02,3.325942158699035645e-02,3.063268214464187622e-02,4.123115539550781250e-02,-4.331568256020545959e-02,2.213259413838386536e-02,2.870272286236286163e-02,-4.082481190562248230e-02,-4.786555096507072449e-02,6.074708700180053711e-02,-7.619892060756683350e-02,5.910537764430046082e-02,-3.710718825459480286e-02,1.528613641858100891e-02,3.889554366469383240e-02,4.037081263959407806e-03,5.581232905387878418e-02,3.520969673991203308e-02,-3.122279979288578033e-02,-7.495109923183917999e-03,1.797355897724628448e-02,6.494870781898498535e-02,-4.982724413275718689e-02,-7.670692354440689087e-02,-5.056539922952651978e-02,6.535114347934722900e-02,6.672328710556030273e-02,-5.236681923270225525e-02,-3.455466777086257935e-02,-1.396828610450029373e-02,-3.332561627030372620e-02,-2.353967539966106415e-02,6.136482954025268555e-02,4.921963438391685486e-02,-7.122205197811126709e-02,-2.928572008386254311e-03,3.527652844786643982e-02,-7.226367294788360596e-02,-7.469320297241210938e-02,1.708069257438182831e-02,2.330494113266468048e-02,-3.084070608019828796e-02,8.285379037261009216e-03,5.845492333173751831e-02,-7.791555672883987427e-02,2.699311450123786926e-02,-4.620664939284324646e-02,-5.562222562730312347e-03,3.190092742443084717e-02,2.476891875267028809e-02,3.924454376101493835e-02,4.423052445054054260e-02,-3.927914053201675415e-02,6.554789841175079346e-02,-3.412202745676040649e-02,8.570476435124874115e-03,-6.942738592624664307e-02,-7.689861953258514404e-02,-1.990356482565402985e-02,4.758153855800628662e-02,4.812885820865631104e-02,2.882509119808673859e-02,3.797420114278793335e-02,3.039786964654922485e-02,-5.398457869887351990e-02,4.285359010100364685e-02,2.638488449156284332e-02,-7.024345546960830688e-02,-7.354617863893508911e-02,6.147780641913414001e-02,1.865032687783241272e-02,-3.509870497509837151e-03,-7.497495412826538086e-02,5.993787199258804321e-02,-1.651924662292003632e-02,2.584497816860675812e-02,-1.052225567400455475e-02,-1.762559637427330017e-02,3.209850564599037170e-02,5.252901464700698853e-02,-7.198549807071685791e-02,2.670865692198276520e-02,-5.634242668747901917e-02,5.511912703514099121e-02,3.998332098126411438e-02,5.990368872880935669e-02,-3.001926839351654053e-02,1.828739047050476074e-02,-4.400344938039779663e-02,6.993148941546678543e-03,5.808635801076889038e-02,-2.935337368398904800e-03,-3.972078487277030945e-02,-5.209311097860336304e-02,-7.676114886999130249e-02,4.089704900979995728e-02,1.482017431408166885e-02,-3.637706860899925232e-02,4.420353472232818604e-02,-2.329877950251102448e-02,-6.181830167770385742e-02,-1.338135683909058571e-03,1.973186247050762177e-02,1.175871957093477249e-02,-5.840420722961425781e-02,-7.698827236890792847e-02,5.314621329307556152e-02,-2.409983240067958832e-02,5.153215490281581879e-03,1.369734480977058411e-02,-7.932565361261367798e-02,3.362550586462020874e-02,-5.030489712953567505e-02,6.434072554111480713e-02,1.624535070732235909e-03,2.203192561864852905e-02,3.634512051939964294e-02,-8.018877357244491577e-02,-7.085018604993820190e-02,-2.162357978522777557e-02,6.653511524200439453e-02,-5.856286268681287766e-03,3.691140562295913696e-02,-1.758804172277450562e-02,2.403112314641475677e-02,3.440076034166850150e-05,-2.083448693156242371e-02,-6.088179349899291992e-02,-7.023248821496963501e-02,4.617401212453842163e-02,1.352058630436658859e-02,-4.751872643828392029e-02,3.502942249178886414e-02,-2.253421209752559662e-02,5.619216337800025940e-02,-1.555944513529539108e-02,-1.402630656957626343e-02,-3.922939300537109375e-02,1.052727177739143372e-02,2.421441301703453064e-02,-3.010356612503528595e-02,2.946566231548786163e-02,-2.007490955293178558e-02,-2.400561468675732613e-03,6.138735264539718628e-02,-8.108935505151748657e-02,-4.413828998804092407e-02,3.243706375360488892e-02,-6.210469175130128860e-03,4.140675440430641174e-02,-4.751428216695785522e-02,3.533296659588813782e-02,-5.567851290106773376e-02,-4.480982199311256409e-02,-1.490201614797115326e-02,-1.324276626110076904e-02,7.459877058863639832e-03,6.293051689863204956e-02,-3.414100408554077148e-02,-2.754558250308036804e-02,-3.945235908031463623e-02,-3.528789803385734558e-02,-7.756851613521575928e-02,4.396638274192810059e-02,-3.027980402112007141e-02,-2.232876606285572052e-02,2.972590737044811249e-03,-6.584750954061746597e-03,2.356351539492607117e-02,2.079222537577152252e-02,-8.313355036079883575e-03,2.334924973547458649e-02,-2.606124803423881531e-02,-4.730580002069473267e-02,4.952775686979293823e-02,-7.801774144172668457e-02,3.935819119215011597e-02,-5.006016045808792114e-02,6.341021507978439331e-02,4.199112206697463989e-02,1.985741406679153442e-02,-8.169234730303287506e-03,6.297240406274795532e-02,5.949160829186439514e-02,6.432175636291503906e-02,-4.547340795397758484e-02,-5.866179242730140686e-02,-7.394720334559679031e-03,-1.159526314586400986e-02,3.442801767960190773e-03,-5.165051668882369995e-02,4.737261310219764709e-02,-7.036904245615005493e-02,5.836607888340950012e-02,-6.201984360814094543e-02,2.779505401849746704e-02,-3.394020348787307739e-02,6.947677582502365112e-02,2.318979240953922272e-02,-1.320933923125267029e-02,-7.470638304948806763e-02,5.756458640098571777e-02,-2.681203745305538177e-02,4.088292643427848816e-02,-5.810274928808212280e-02,-7.428820431232452393e-02,3.729610890150070190e-02,-8.111249655485153198e-02,5.125712230801582336e-02,-5.125683173537254333e-02,-4.819313064217567444e-02,2.500733546912670135e-02,9.492011740803718567e-03,-5.088679492473602295e-02,-1.740433461964130402e-02,-5.501776933670043945e-02,7.141914218664169312e-03,-7.719944417476654053e-02,3.651251643896102905e-02,-1.501738931983709335e-02,1.778777875006198883e-02,-2.685477025806903839e-02,-3.710176423192024231e-02,-4.024354368448257446e-02,5.423008650541305542e-02,6.543629616498947144e-02,-7.884418964385986328e-02,-4.604597389698028564e-02,-6.366871297359466553e-02,-6.881556659936904907e-02,3.395349159836769104e-02,-4.091187939047813416e-02,-5.156942084431648254e-02,-7.178304344415664673e-02,-2.898474223911762238e-02,-3.646344691514968872e-02,-3.009494394063949585e-02,1.245303545147180557e-02,4.232260584831237793e-02,2.691679820418357849e-02,-4.741901531815528870e-02,3.116807527840137482e-02,-2.850093645974993706e-03,-3.979639708995819092e-02,-4.759091138839721680e-02,5.030328175053000450e-04,-2.566847018897533417e-02,-5.761613324284553528e-02,2.939564175903797150e-03,3.385653719305992126e-02,2.828389592468738556e-02,1.043877843767404556e-02,-7.585091143846511841e-02,9.259388782083988190e-03,-8.190690539777278900e-03,-1.719980500638484955e-02,-5.209032073616981506e-02,4.755567014217376709e-02,2.275371225550770760e-03,-3.720288351178169250e-02,-3.582580387592315674e-02,-6.259520351886749268e-02,4.946962371468544006e-02,6.582556664943695068e-02,5.061995238065719604e-02,6.792800128459930420e-02,-5.091741308569908142e-02,4.351583868265151978e-02,-5.919036269187927246e-02,6.357188522815704346e-02,-6.317850947380065918e-02,2.331076748669147491e-02,6.187621504068374634e-03,6.624218076467514038e-02,-5.521574243903160095e-02,4.220253229141235352e-02,-2.878139540553092957e-02,-3.492669016122817993e-02,1.282379729673266411e-03,2.655224874615669250e-02,-6.207672506570816040e-02,-4.539470747113227844e-02,-6.406157463788986206e-02,2.103172242641448975e-02,-9.969182312488555908e-03,-4.687933623790740967e-02,6.916530430316925049e-02,-4.221485927700996399e-03,2.783000655472278595e-02,-5.015340447425842285e-02,8.727869717404246330e-04,4.692623019218444824e-02,-4.984607920050621033e-02,6.395287066698074341e-02,4.997185990214347839e-02,6.698886305093765259e-02,1.082866266369819641e-02,-5.557923763990402222e-02,-1.761497370898723602e-02,5.842969939112663269e-02,2.210498321801424026e-03,-7.939689606428146362e-02,-5.739032849669456482e-02,8.035372011363506317e-04,-1.318197697401046753e-02,4.014580696821212769e-02,5.739779770374298096e-02,3.962586820125579834e-02,-1.501613389700651169e-02,3.162249177694320679e-02,2.289354056119918823e-02,5.962944403290748596e-02,5.414691567420959473e-02,4.331010580062866211e-02,-6.843131780624389648e-02,-6.118880212306976318e-02,-1.429407577961683273e-02,3.210761351510882378e-03,7.503123022615909576e-03,-2.076049149036407471e-02,-9.781822562217712402e-03,-2.404090017080307007e-02,-3.368526324629783630e-02,6.141914427280426025e-02,2.426023781299591064e-02,5.446586757898330688e-02,5.086819827556610107e-02,4.885875061154365540e-02,-1.070233061909675598e-02,1.776477880775928497e-02,6.873106211423873901e-02,-6.127813085913658142e-02,-4.531466693151742220e-04,-6.544256210327148438e-02,-7.160212844610214233e-02,-2.128825522959232330e-02,6.653403490781784058e-02,-3.120309859514236450e-02,-1.040306221693754196e-02,1.767774671316146851e-02,1.280426047742366791e-02,-4.677406046539545059e-03,1.731163263320922852e-02,6.157897785305976868e-02,1.636686734855175018e-02,3.905369667336344719e-03,-1.652527041733264923e-02,-4.978114366531372070e-02,2.152443677186965942e-02,-1.542539615184068680e-02,-4.672761633992195129e-02,-4.051344096660614014e-02,6.868231296539306641e-02,-1.494620181620121002e-02,1.693432219326496124e-02,8.208111976273357868e-04,-5.407732725143432617e-02,1.852462254464626312e-02,-5.681574344635009766e-02,-3.282266855239868164e-02,6.208898872137069702e-02,-3.242027387022972107e-02,5.992366746068000793e-02,4.608306288719177246e-02,-4.621226340532302856e-02,5.050533916801214218e-03,-6.610237061977386475e-02,9.254625998437404633e-03,6.334924697875976562e-02,-1.978500746190547943e-02,1.798199862241744995e-02,4.673358425498008728e-02,-2.693949034437537193e-03,1.390592567622661591e-02,8.987464942038059235e-03,3.479234501719474792e-02,4.044375941157341003e-02,-5.759270396083593369e-03,-1.502452511340379715e-02,4.777960851788520813e-02,8.609929122030735016e-03,-5.391028150916099548e-02,-1.386237097904086113e-03,1.953686028718948364e-02,5.263880267739295959e-02,4.914619401097297668e-02,-5.111132562160491943e-02,9.480531327426433563e-03,-6.345476210117340088e-02,2.118999511003494263e-02,-1.777967438101768494e-02,1.433638297021389008e-02,-7.517851144075393677e-02,2.113632671535015106e-02,-3.846148401498794556e-02,6.498827785253524780e-02,3.533042594790458679e-02,1.204740069806575775e-02,6.826131790876388550e-02,-7.451792061328887939e-02,-7.195443660020828247e-02,-5.572732910513877869e-02,2.300242707133293152e-02,-1.331206038594245911e-02,-4.701941832900047302e-02,-2.530279383063316345e-02,9.602733189240098000e-04,-7.326775044202804565e-02,-1.756005804054439068e-03,4.222012683749198914e-02,-7.483706623315811157e-02,-2.292210981249809265e-02,2.898013778030872345e-02,3.976492211222648621e-02,2.033063396811485291e-02,-8.044955879449844360e-02,6.080286949872970581e-02,-3.499445691704750061e-02,-5.110124591737985611e-03,-4.322388768196105957e-02,-4.356168210506439209e-02,-2.031234651803970337e-02,-3.954924270510673523e-02,-6.655010581016540527e-02,-5.421127006411552429e-02,-3.550958633422851562e-02,-1.610113680362701416e-02,1.674485951662063599e-02,-6.433966755867004395e-02,-3.297302499413490295e-02,-4.124755784869194031e-02,-7.147125899791717529e-02,6.287705153226852417e-02,3.830540552735328674e-02,-4.742475226521492004e-03,2.643284387886524200e-02,-2.945254789665341377e-03,-5.202050507068634033e-02,-1.781370863318443298e-02,-1.316675916314125061e-02,-7.297016680240631104e-02,-7.267311215400695801e-02,-7.382895052433013916e-02,5.339723825454711914e-02,-4.375063255429267883e-02,6.944198161363601685e-02,-5.758672952651977539e-02,-3.813156858086585999e-02,4.719717428088188171e-02,3.559952368959784508e-03,-1.049510110169649124e-02,-2.635151334106922150e-02,2.471281448379158974e-03,-4.830412939190864563e-02,-7.942382991313934326e-02,6.744176149368286133e-02,-7.453790307044982910e-02,-5.812828242778778076e-02,-2.889524400234222412e-02,-7.358973473310470581e-02,4.664767533540725708e-03,-7.751231640577316284e-02,-5.380247905850410461e-02,3.809804469347000122e-02,7.738390471786260605e-03,6.492768973112106323e-02,-7.930199056863784790e-02,-5.636195093393325806e-02,6.141595169901847839e-02,-2.205123007297515869e-02,-6.298850476741790771e-02,-2.564987726509571075e-02,-6.615922600030899048e-02,-4.877288639545440674e-02,-1.189784333109855652e-02,-1.238312944769859314e-02,5.536090116947889328e-03,-3.380988165736198425e-02,-4.432977735996246338e-02,5.588676407933235168e-02,-2.741912752389907837e-02,-1.597505435347557068e-02,1.690460555255413055e-02,6.838741153478622437e-02,5.988452211022377014e-02,9.576559066772460938e-03,-3.300049528479576111e-02,2.070707455277442932e-02,1.696485094726085663e-02,5.718210712075233459e-02,-1.584363728761672974e-02,-4.388933256268501282e-02,-3.519916161894798279e-02,-6.437572650611400604e-03,-2.387967146933078766e-02,5.253480747342109680e-02,-3.768675029277801514e-02,-5.217205733060836792e-02,-7.256349083036184311e-03,2.983614057302474976e-02,3.015534393489360809e-02,-1.690613850951194763e-02,-4.705720022320747375e-02,-2.640992775559425354e-02,3.346303477883338928e-02,-5.514012649655342102e-02,-6.975728273391723633e-02,4.835166409611701965e-02,5.270598828792572021e-02,-3.066179808229207993e-03,1.199971977621316910e-02,-6.341477483510971069e-02,6.500100344419479370e-02,6.100849434733390808e-02,1.867836154997348785e-02,-2.707704156637191772e-02,-8.060113340616226196e-02,-1.297040097415447235e-02,3.152923658490180969e-02,-6.033846735954284668e-02,-5.788233131170272827e-02,1.754381507635116577e-02,-3.735310211777687073e-02,-4.922902956604957581e-02,3.613688796758651733e-02,4.083396121859550476e-02,-4.308535903692245483e-02,6.330938637256622314e-02,-5.530938133597373962e-02,5.626336485147476196e-02,6.767287850379943848e-02,3.291304036974906921e-02,5.639885365962982178e-02,-1.585385389626026154e-02,3.450190275907516479e-02,-5.756405740976333618e-02,-3.977267537266016006e-03,};
const float bias1[C1] = {-6.000840105116367340e-03,-5.998904816806316376e-03,3.789152950048446655e-02,-5.997997708618640900e-03,-5.990845616906881332e-03,0.000000000000000000e+00,0.000000000000000000e+00,-2.952007018029689789e-02,0.000000000000000000e+00,-5.962625145912170410e-03,0.000000000000000000e+00,0.000000000000000000e+00,0.000000000000000000e+00,0.000000000000000000e+00,-4.099194426089525223e-03,-1.398507505655288696e-02,0.000000000000000000e+00,0.000000000000000000e+00,0.000000000000000000e+00,-3.345862496644258499e-03,0.000000000000000000e+00,-6.000797729939222336e-03,5.495913699269294739e-02,-2.354383934289216995e-03,0.000000000000000000e+00,-6.000809837132692337e-03,-5.982553120702505112e-03,0.000000000000000000e+00,4.856937378644943237e-02,0.000000000000000000e+00,0.000000000000000000e+00,0.000000000000000000e+00};

const int R2 = 32, C2 = 16;
const float weight2[R2 * C2] = {
1.414333581924438477e-01,1.380005478858947754e-02,-3.197590112686157227e-01,-1.090314984321594238e-02,-2.095359265804290771e-01,7.214015722274780273e-02,-4.088243842124938965e-02,1.230669543147087097e-01,1.209238469600677490e-01,1.992725431919097900e-01,-1.068310439586639404e-01,6.449073553085327148e-02,1.352557241916656494e-01,-2.584095001220703125e-01,2.157456427812576294e-01,7.391069829463958740e-02,2.838903963565826416e-01,3.069879710674285889e-01,1.679269373416900635e-01,1.155657768249511719e-01,6.420862674713134766e-02,-2.103111743927001953e-01,-2.883998751640319824e-01,1.105231121182441711e-01,1.521605551242828369e-01,3.984326124191284180e-02,-3.591257333755493164e-02,2.496199309825897217e-01,-1.468403339385986328e-01,-2.881753444671630859e-01,-3.455406725406646729e-01,3.045472204685211182e-01,1.717812120914459229e-01,7.206439971923828125e-03,-7.488549947738647461e-01,9.958094358444213867e-02,1.430213451385498047e-03,-2.183548063039779663e-01,2.335397303104400635e-01,4.445050656795501709e-01,-3.528172373771667480e-01,-1.224202364683151245e-01,-9.890255331993103027e-02,5.742341279983520508e-03,-2.548552453517913818e-01,3.412437140941619873e-01,-9.332294575870037079e-03,2.782491743564605713e-01,-1.669202297925949097e-01,-1.869605481624603271e-01,-3.022292256355285645e-01,-3.024900257587432861e-01,-2.016357481479644775e-01,-2.123778015375137329e-01,2.165516465902328491e-01,6.813222169876098633e-02,1.716850101947784424e-01,-3.445984423160552979e-01,-2.152571827173233032e-01,-2.764276862144470215e-01,-6.680187582969665527e-02,3.562682867050170898e-02,-3.514507412910461426e-02,2.409428060054779053e-01,2.920279800891876221e-01,-1.291124075651168823e-01,1.793974786996841431e-01,-2.264148890972137451e-01,5.104437470436096191e-02,3.002701699733734131e-01,-3.117573559284210205e-01,-4.174784943461418152e-02,3.270178139209747314e-01,-2.430131584405899048e-01,-6.392118334770202637e-02,3.849911689758300781e-02,2.468009889125823975e-01,-3.376410007476806641e-01,2.523328959941864014e-01,-3.548836708068847656e-01,-3.408676385879516602e-02,-1.015876531600952148e-01,1.177374720573425293e-01,-1.323474198579788208e-01,2.042518556118011475e-01,2.710563242435455322e-01,-2.243156433105468750e-01,-2.516826987266540527e-01,2.595907151699066162e-01,1.824626624584197998e-01,2.235477268695831299e-01,1.112612783908843994e-01,1.737911999225616455e-01,2.744367718696594238e-02,1.420418024063110352e-01,-2.551563382148742676e-01,-6.006188690662384033e-03,3.046253323554992676e-01,5.328134298324584961e-01,-1.922973692417144775e-01,4.902680218219757080e-02,-3.030677735805511475e-01,-3.379656970500946045e-01,4.900168180465698242e-01,9.583899378776550293e-02,-1.040439587086439133e-02,-1.971687674522399902e-01,1.837002336978912354e-01,-1.352316141128540039e-02,4.199773073196411133e-02,1.287435740232467651e-01,-2.135356664657592773e-01,-3.153729736804962158e-01,1.026729345321655273e-01,1.642884314060211182e-01,2.202870994806289673e-01,-1.082777827978134155e-01,5.803695693612098694e-02,-1.179318130016326904e-01,7.320933789014816284e-02,2.361761033535003662e-01,-7.708234712481498718e-03,2.494249045848846436e-01,-2.965210378170013428e-01,1.046834066510200500e-01,1.669757068157196045e-01,3.050866425037384033e-01,-2.698543667793273926e-01,3.240615427494049072e-01,9.834173321723937988e-02,-1.384316533803939819e-01,1.171578764915466309e-01,1.905989944934844971e-01,3.418379724025726318e-01,1.144329011440277100e-01,-2.545346617698669434e-01,1.173895001411437988e-01,-2.750635743141174316e-01,1.247563958168029785e-02,2.822354435920715332e-02,-1.285241991281509399e-01,-1.812402904033660889e-01,-3.880113363265991211e-02,-3.029441237449645996e-01,2.229006588459014893e-01,1.681261360645294189e-01,1.806271076202392578e-02,-2.249856889247894287e-01,5.859491229057312012e-02,-7.101121544837951660e-02,1.165470480918884277e-02,2.287631332874298096e-01,-3.450269103050231934e-01,3.010591864585876465e-02,2.417842447757720947e-01,1.768887042999267578e-02,2.144134938716888428e-01,-1.528049111366271973e-01,-2.557332515716552734e-01,-2.330152541399002075e-01,1.550949066877365112e-01,2.828168272972106934e-01,1.183642894029617310e-01,2.977728247642517090e-01,7.558886706829071045e-02,5.301803350448608398e-02,2.048558294773101807e-01,-5.168516188859939575e-02,-8.993336558341979980e-02,-7.586220651865005493e-02,2.387794554233551025e-01,3.532123267650604248e-01,-1.717735230922698975e-01,-8.775144815444946289e-03,1.653975546360015869e-01,-2.854331135749816895e-01,-2.827551960945129395e-01,2.043739259243011475e-01,-3.275477588176727295e-01,-8.978871256113052368e-02,-3.003815114498138428e-01,2.215776443481445312e-01,4.885596632957458496e-01,2.403412200510501862e-02,-2.224167585372924805e-01,2.386972308158874512e-01,1.717276573181152344e-01,-8.683481812477111816e-02,-7.862925529479980469e-02,-5.479487776756286621e-02,2.735809981822967529e-01,8.726379275321960449e-02,1.530978381633758545e-01,2.017582952976226807e-01,3.416739404201507568e-01,1.652121841907501221e-01,-5.896604061126708984e-02,2.809573709964752197e-01,2.667188346385955811e-01,-1.990302503108978271e-01,-1.989262104034423828e-01,-1.021612584590911865e-01,6.698796153068542480e-02,-1.168539971113204956e-01,-4.045903682708740234e-02,3.560683131217956543e-02,-2.334418296813964844e-01,2.528223991394042969e-01,2.598696053028106689e-01,1.164598464965820312e-01,1.158928871154785156e-01,-3.004412651062011719e-01,-2.535341978073120117e-01,-2.498687654733657837e-01,-1.608033776283264160e-01,-3.063210844993591309e-01,-1.573409289121627808e-01,-4.449099302291870117e-03,2.895805537700653076e-01,-2.464788109064102173e-01,-3.313108086585998535e-01,7.489114999771118164e-02,-1.270785629749298096e-01,9.139114618301391602e-02,-1.545186936855316162e-01,2.118557393550872803e-01,-1.684281229972839355e-02,-2.264646291732788086e-01,-1.713146269321441650e-01,-2.648415267467498779e-01,1.476118266582489014e-01,2.822099030017852783e-01,1.801579892635345459e-01,1.148965954780578613e-02,3.277465701103210449e-02,2.025223672389984131e-01,-1.541060656309127808e-01,2.000713646411895752e-01,1.222475171089172363e-01,1.760542392730712891e-02,2.182718813419342041e-01,-2.023051232099533081e-01,1.179697811603546143e-01,-3.425737023353576660e-01,-4.593980312347412109e-02,7.596370577812194824e-02,-2.118131965398788452e-01,-1.304401159286499023e-01,-1.929954737424850464e-01,-2.515237033367156982e-01,-9.697794914245605469e-02,2.020259201526641846e-01,-2.571367323398590088e-01,-5.332723259925842285e-02,2.035397291183471680e-02,5.297118425369262695e-02,-4.077640175819396973e-02,1.938510835170745850e-01,-2.972411513328552246e-01,-5.266147851943969727e-02,-3.427706062793731689e-01,1.093195676803588867e-01,1.375803649425506592e-01,-2.308921515941619873e-01,2.833151519298553467e-01,7.912218570709228516e-03,-2.228838205337524414e-01,2.251733839511871338e-01,-1.942749619483947754e-01,-1.763093620538711548e-01,-1.997088789939880371e-01,-2.577620148658752441e-01,-4.003292322158813477e-02,2.153410017490386963e-01,2.496092021465301514e-01,1.402329206466674805e-01,2.352668344974517822e-01,-2.619081139564514160e-01,2.621558606624603271e-01,7.113596796989440918e-02,5.392831563949584961e-02,2.197665870189666748e-01,2.035014331340789795e-01,-1.750991642475128174e-01,-1.938618421554565430e-01,3.627908229827880859e-02,-3.530979156494140625e-04,-6.961107254028320312e-02,-7.837633043527603149e-02,-1.456266641616821289e-01,2.117981761693954468e-02,-1.056575924158096313e-01,-2.646723389625549316e-01,2.908568084239959717e-01,-1.096396297216415405e-01,-1.147653609514236450e-01,-2.121841758489608765e-01,9.916094690561294556e-02,-3.346231579780578613e-02,-2.740167975425720215e-01,1.496030986309051514e-01,-1.102639883756637573e-01,3.666896000504493713e-02,-3.130811750888824463e-01,-2.833016514778137207e-01,1.173321902751922607e-01,-2.722773253917694092e-01,1.353017538785934448e-01,1.765244901180267334e-01,3.481134474277496338e-01,2.628009021282196045e-01,-2.963196933269500732e-01,-2.219458967447280884e-01,-1.216159611940383911e-01,7.750043272972106934e-02,5.718231201171875000e-03,-2.686859071254730225e-01,2.460093200206756592e-01,1.553792655467987061e-01,-6.840938329696655273e-02,1.516989171504974365e-01,6.969192624092102051e-02,-2.057349532842636108e-01,-5.269944667816162109e-03,4.013341665267944336e-02,-2.076390385627746582e-02,-1.057922095060348511e-01,-1.716428697109222412e-01,2.690812647342681885e-01,1.109303236007690430e-01,3.151247203350067139e-01,-3.094616234302520752e-01,3.447863161563873291e-01,-2.438958883285522461e-01,2.119403183460235596e-01,-1.342660337686538696e-01,-7.147288322448730469e-02,-3.504676520824432373e-01,-2.479211688041687012e-01,-5.843281745910644531e-02,2.184042632579803467e-01,1.776771843433380127e-01,-3.068343698978424072e-01,2.951717674732208252e-01,-3.197243809700012207e-02,2.751724421977996826e-01,1.072795689105987549e-01,2.704372704029083252e-01,-4.287546873092651367e-02,-2.471417188644409180e-03,-8.977556228637695312e-02,-8.004024624824523926e-02,-8.985203504562377930e-02,2.589053213596343994e-01,-1.851853281259536743e-01,-2.793776988983154297e-01,-1.524319946765899658e-01,-3.264770805835723877e-01,1.827923953533172607e-01,-2.739768326282501221e-01,-2.696621119976043701e-01,3.962561488151550293e-02,2.019691169261932373e-01,1.683536469936370850e-01,-8.292257785797119141e-02,-3.145954608917236328e-01,-3.065741360187530518e-01,-1.441810280084609985e-01,3.507598340511322021e-01,9.793847799301147461e-02,2.563507854938507080e-01,3.104480504989624023e-01,-1.548394262790679932e-01,1.359695196151733398e-01,-2.892148494720458984e-01,3.320366144180297852e-02,-1.984479278326034546e-01,2.128461897373199463e-01,1.282370984554290771e-01,-1.209985464811325073e-01,-1.548180729150772095e-01,7.020688056945800781e-02,6.396821141242980957e-02,1.710790097713470459e-01,2.658875286579132080e-01,2.826611101627349854e-01,4.830411970615386963e-01,2.157488465309143066e-02,6.217578053474426270e-02,1.780403554439544678e-01,1.945413649082183838e-01,-6.459454298019409180e-01,3.146222531795501709e-01,2.827495634555816650e-01,7.787421345710754395e-02,3.069544136524200439e-01,2.646958529949188232e-01,-2.980634272098541260e-01,-2.877681553363800049e-01,-3.762473165988922119e-02,-3.008697330951690674e-01,5.843913555145263672e-02,2.982802093029022217e-01,-2.391576468944549561e-01,1.792509853839874268e-01,-2.527511119842529297e-01,1.517486944794654846e-02,1.744416356086730957e-02,-2.736512124538421631e-01,-2.364436388015747070e-01,3.196245133876800537e-01,2.073959410190582275e-01,5.339644551277160645e-01,3.041772544384002686e-01,-1.773565411567687988e-01,2.719033062458038330e-01,-1.852005869150161743e-01,9.374132752418518066e-02,-2.305002510547637939e-01,6.559491157531738281e-05,1.060171127319335938e-01,-2.427506744861602783e-01,-3.161975741386413574e-02,-1.063224114477634430e-02,3.274643719196319580e-01,8.969336748123168945e-02,-1.746829152107238770e-01,-3.250688314437866211e-03,-1.292325258255004883e-01,-2.371363639831542969e-01,1.816353350877761841e-01,-2.112412899732589722e-01,7.616305351257324219e-02,-3.376584649085998535e-01,2.000758945941925049e-01,-3.417840600013732910e-02,1.227591037750244141e-01,3.216434419155120850e-01,-3.945075571537017822e-01,-2.916190922260284424e-01,1.952247321605682373e-01,-1.462026089429855347e-01,1.603818833827972412e-01,2.839985191822052002e-01,3.352499902248382568e-01,9.036451578140258789e-03,1.133209168910980225e-01,-2.798850834369659424e-01,4.166695475578308105e-02,-1.048591583967208862e-01,-2.500054240226745605e-01,2.062446773052215576e-01,-1.637640595436096191e-02,-1.997457146644592285e-01,-2.131443619728088379e-01,2.753040194511413574e-02,-8.313059806823730469e-04,-2.738949060440063477e-01,2.295041978359222412e-01,-9.791529178619384766e-02,-2.755353450775146484e-01,-2.068147510290145874e-01,1.360735297203063965e-02,-2.423009574413299561e-01,1.117882728576660156e-01,2.451885044574737549e-01,-1.969941109418869019e-01,8.615010976791381836e-02,2.932789027690887451e-01,3.353616893291473389e-01,-8.638754487037658691e-02,3.172924220561981201e-01,-2.168696373701095581e-01,1.625823974609375000e-02,-2.180057466030120850e-01,3.038583099842071533e-01,1.174144446849822998e-01,3.606855869293212891e-03,1.137197017669677734e-03,3.140054643154144287e-01,-2.884603142738342285e-01,1.194967851042747498e-01,-6.781934946775436401e-02,3.382829427719116211e-01,-1.380741149187088013e-01,2.029939591884613037e-01,2.728622257709503174e-01,-3.818682581186294556e-02,2.175180017948150635e-01,-1.838036030530929565e-01,2.556931972503662109e-02,1.424618959426879883e-01,-1.101898103952407837e-01,5.707129836082458496e-02,-9.739181399345397949e-02,9.849782288074493408e-02,7.095101475715637207e-02,-6.276223063468933105e-02,-2.918408811092376709e-01,5.644963309168815613e-02,4.374614357948303223e-02,1.325725018978118896e-01,-1.622138917446136475e-02,3.939728811383247375e-02,-2.509707212448120117e-01,-9.871723502874374390e-02,2.955228984355926514e-01,-1.575033664703369141e-01,-1.734130382537841797e-01,2.991609275341033936e-01,3.474932014942169189e-01,9.763151407241821289e-03,};
const float bias2[C2] = {
-2.430561435176059604e-04,9.486113488674163818e-02,-6.837704684585332870e-03,-2.764859981834888458e-02,0.000000000000000000e+00,2.827990613877773285e-02,-1.231170352548360825e-02,0.000000000000000000e+00,0.000000000000000000e+00,-5.999134387820959091e-03,0.000000000000000000e+00,-5.558538250625133514e-03,5.709508433938026428e-02,4.976947791874408722e-03,0.000000000000000000e+00,7.464311551302671432e-03,};

const int R3 = 16, C3 = 4;
const float weight3[R3 * C3] = {
1.706501394510269165e-01,1.775315552949905396e-01,3.941178917884826660e-01,-5.558157563209533691e-01,3.214898705482482910e-01,7.155833244323730469e-01,-3.589097559452056885e-01,4.282992482185363770e-01,1.368229389190673828e-01,-1.022380292415618896e-01,4.891976118087768555e-01,1.548003256320953369e-01,-8.893933892250061035e-01,-1.793038398027420044e-01,5.602020025253295898e-02,7.849624007940292358e-02,1.439830809831619263e-01,-1.147771239280700684e+00,4.689054191112518311e-01,8.078878521919250488e-01,1.345611214637756348e-01,1.495554000139236450e-01,1.222678273916244507e-01,5.012667179107666016e-01,-2.586314082145690918e-01,1.948239356279373169e-01,2.780200839042663574e-01,-4.839528352022171021e-02,1.424905955791473389e-01,3.645140528678894043e-01,-4.146283268928527832e-01,-5.538681745529174805e-01,2.888921201229095459e-01,6.019131839275360107e-02,4.909559190273284912e-01,1.651697456836700439e-01,3.521877527236938477e-01,-9.483147263526916504e-01,-3.378827273845672607e-01,4.415249824523925781e-01,4.460515379905700684e-01,-2.162645757198333740e-01,3.624330163002014160e-01,-4.826728105545043945e-01,-1.328522861003875732e-01,1.686084866523742676e-01,1.477285027503967285e-01,-3.087196052074432373e-01,3.021397292613983154e-01,-4.204344153404235840e-01,3.033269345760345459e-01,-6.680737733840942383e-01,-4.964196681976318359e-02,-1.524503976106643677e-01,-3.235855400562286377e-01,1.412228941917419434e-01,2.029273509979248047e-01,2.383726388216018677e-01,2.318416833877563477e-01,5.146570205688476562e-01,5.311732292175292969e-01,2.817259728908538818e-01,-4.809153079986572266e-01,-2.556909024715423584e-01,};
const float bias3[C3] = {
2.541609480977058411e-02,-6.306937336921691895e-02,4.783948510885238647e-02,-1.896310038864612579e-02,};

